<?xml version="1.0"?>
<opencv_storage>
<cascade>
  <stageType>BOOST</stageType>
  <featureType>HOG</featureType>
  <height>24</height>
  <width>24</width>
  <stageParams>
    <boostType>GAB</boostType>
    <minHitRate>9.9989998340606689e-001</minHitRate>
    <maxFalseAlarm>4.0000000596046448e-001</maxFalseAlarm>
    <weightTrimRate>9.4999999999999996e-001</weightTrimRate>
    <maxDepth>1</maxDepth>
    <maxWeakCount>1000</maxWeakCount></stageParams>
  <featureParams>
    <maxCatCount>0</maxCatCount>
    <featSize>36</featSize></featureParams>
  <stageNum>15</stageNum>
  <stages>
    <!-- stage 0 -->
    <_>
      <maxWeakCount>11</maxWeakCount>
      <stageThreshold>-2.6769597530364990e+000</stageThreshold>
      <weakClassifiers>
        <_>
          <internalNodes>
            0 -1 110 2.9095057398080826e-002</internalNodes>
          <leafValues>
            -7.6948934793472290e-001 3.9503061771392822e-001</leafValues></_>
        <_>
          <internalNodes>
            0 -1 309 3.0827501905150712e-004</internalNodes>
          <leafValues>
            -9.4261252880096436e-001 1.6188488900661469e-001</leafValues></_>
        <_>
          <internalNodes>
            0 -1 159 2.9055532068014145e-002</internalNodes>
          <leafValues>
            -4.4877925515174866e-001 5.1069194078445435e-001</leafValues></_>
        <_>
          <internalNodes>
            0 -1 18 9.4778519123792648e-003</internalNodes>
          <leafValues>
            -7.0677363872528076e-001 3.0035051703453064e-001</leafValues></_>
        <_>
          <internalNodes>
            0 -1 260 2.6601493358612061e-002</internalNodes>
          <leafValues>
            4.2207819223403931e-001 -5.9855538606643677e-001</leafValues></_>
        <_>
          <internalNodes>
            0 -1 67 5.8063775300979614e-002</internalNodes>
          <leafValues>
            2.4722139537334442e-001 -6.9940221309661865e-001</leafValues></_>
        <_>
          <internalNodes>
            0 -1 12 1.0839125025086105e-004</internalNodes>
          <leafValues>
            -9.3073451519012451e-001 1.0920280963182449e-001</leafValues></_>
        <_>
          <internalNodes>
            0 -1 171 1.2711598537862301e-002</internalNodes>
          <leafValues>
            -5.1208484172821045e-001 2.0349743962287903e-001</leafValues></_>
        <_>
          <internalNodes>
            0 -1 17 2.0311783999204636e-002</internalNodes>
          <leafValues>
            3.2632184028625488e-001 -3.5197064280509949e-001</leafValues></_>
        <_>
          <internalNodes>
            0 -1 169 9.4192624092102051e-003</internalNodes>
          <leafValues>
            -5.7858645915985107e-001 1.7150916159152985e-001</leafValues></_>
        <_>
          <internalNodes>
            0 -1 318 1.1838021600851789e-004</internalNodes>
          <leafValues>
            -7.6653629541397095e-001 1.1824838072061539e-001</leafValues></_></weakClassifiers></_>
    <!-- stage 1 -->
    <_>
      <maxWeakCount>32</maxWeakCount>
      <stageThreshold>-3.0588214397430420e+000</stageThreshold>
      <weakClassifiers>
        <_>
          <internalNodes>
            0 -1 110 4.3845899403095245e-002</internalNodes>
          <leafValues>
            -6.8692636489868164e-001 3.3546033501625061e-001</leafValues></_>
        <_>
          <internalNodes>
            0 -1 159 4.2199306190013885e-002</internalNodes>
          <leafValues>
            -3.5133606195449829e-001 4.9606135487556458e-001</leafValues></_>
        <_>
          <internalNodes>
            0 -1 171 5.4234480485320091e-003</internalNodes>
          <leafValues>
            -7.5694531202316284e-001 1.8248109519481659e-001</leafValues></_>
        <_>
          <internalNodes>
            0 -1 53 1.8262259662151337e-002</internalNodes>
          <leafValues>
            3.2064718008041382e-001 -4.5580604672431946e-001</leafValues></_>
        <_>
          <internalNodes>
            0 -1 166 4.0851239114999771e-002</internalNodes>
          <leafValues>
            2.6413440704345703e-001 -5.2182579040527344e-001</leafValues></_>
        <_>
          <internalNodes>
            0 -1 93 1.1393874592613429e-004</internalNodes>
          <leafValues>
            -8.2934623956680298e-001 1.7375770211219788e-001</leafValues></_>
        <_>
          <internalNodes>
            0 -1 37 2.3898746818304062e-002</internalNodes>
          <leafValues>
            -3.7243816256523132e-001 3.0954435467720032e-001</leafValues></_>
        <_>
          <internalNodes>
            0 -1 66 9.2238355427980423e-003</internalNodes>
          <leafValues>
            -3.9001330733299255e-001 2.7753993868827820e-001</leafValues></_>
        <_>
          <internalNodes>
            0 -1 211 3.0157633125782013e-002</internalNodes>
          <leafValues>
            2.4680696427822113e-001 -4.2543339729309082e-001</leafValues></_>
        <_>
          <internalNodes>
            0 -1 284 2.3403022438287735e-002</internalNodes>
          <leafValues>
            -2.3703984916210175e-001 3.8595587015151978e-001</leafValues></_>
        <_>
          <internalNodes>
            0 -1 169 1.1133190244436264e-002</internalNodes>
          <leafValues>
            -4.8382005095481873e-001 1.7215433716773987e-001</leafValues></_>
        <_>
          <internalNodes>
            0 -1 224 1.8188368529081345e-002</internalNodes>
          <leafValues>
            2.8703752160072327e-001 -3.3027398586273193e-001</leafValues></_>
        <_>
          <internalNodes>
            0 -1 147 2.8973800363019109e-004</internalNodes>
          <leafValues>
            -9.0117210149765015e-001 7.9757936298847198e-002</leafValues></_>
        <_>
          <internalNodes>
            0 -1 268 2.6269625872373581e-002</internalNodes>
          <leafValues>
            -2.6447537541389465e-001 3.1817966699600220e-001</leafValues></_>
        <_>
          <internalNodes>
            0 -1 318 1.1838021600851789e-004</internalNodes>
          <leafValues>
            -7.2113049030303955e-001 9.5395736396312714e-002</leafValues></_>
        <_>
          <internalNodes>
            0 -1 85 7.7694222331047058e-002</internalNodes>
          <leafValues>
            8.1511095166206360e-002 -6.7302423715591431e-001</leafValues></_>
        <_>
          <internalNodes>
            0 -1 107 4.4007062911987305e-002</internalNodes>
          <leafValues>
            1.4157381653785706e-001 -4.0614178776741028e-001</leafValues></_>
        <_>
          <internalNodes>
            0 -1 4 2.0243689417839050e-002</internalNodes>
          <leafValues>
            2.6667043566703796e-001 -1.9587825238704681e-001</leafValues></_>
        <_>
          <internalNodes>
            0 -1 111 2.8828093782067299e-002</internalNodes>
          <leafValues>
            -2.0300993323326111e-001 3.2932913303375244e-001</leafValues></_>
        <_>
          <internalNodes>
            0 -1 101 5.4040402173995972e-003</internalNodes>
          <leafValues>
            -4.6831649541854858e-001 1.2701453268527985e-001</leafValues></_>
        <_>
          <internalNodes>
            0 -1 286 3.7733137607574463e-002</internalNodes>
          <leafValues>
            -1.3936844468116760e-001 3.6444911360740662e-001</leafValues></_>
        <_>
          <internalNodes>
            0 -1 246 4.4467317638918757e-004</internalNodes>
          <leafValues>
            -6.6602194309234619e-001 7.6912365853786469e-002</leafValues></_>
        <_>
          <internalNodes>
            0 -1 46 1.3810144737362862e-002</internalNodes>
          <leafValues>
            1.7606781423091888e-001 -2.4812522530555725e-001</leafValues></_>
        <_>
          <internalNodes>
            0 -1 172 3.1839955598115921e-002</internalNodes>
          <leafValues>
            -1.3761039078235626e-001 3.2981970906257629e-001</leafValues></_>
        <_>
          <internalNodes>
            0 -1 122 3.0164100229740143e-002</internalNodes>
          <leafValues>
            -1.6441611945629120e-001 2.7161681652069092e-001</leafValues></_>
        <_>
          <internalNodes>
            0 -1 85 1.3376334682106972e-002</internalNodes>
          <leafValues>
            3.1106445193290710e-001 -1.4227417111396790e-001</leafValues></_>
        <_>
          <internalNodes>
            0 -1 219 3.7135975435376167e-004</internalNodes>
          <leafValues>
            -8.1445431709289551e-001 5.8936476707458496e-002</leafValues></_>
        <_>
          <internalNodes>
            0 -1 168 2.1204825490713120e-002</internalNodes>
          <leafValues>
            -2.0702302455902100e-001 2.0151033997535706e-001</leafValues></_>
        <_>
          <internalNodes>
            0 -1 21 2.1260000765323639e-002</internalNodes>
          <leafValues>
            -1.6468119621276855e-001 2.5800412893295288e-001</leafValues></_>
        <_>
          <internalNodes>
            0 -1 58 2.0848462358117104e-002</internalNodes>
          <leafValues>
            2.5098776817321777e-001 -1.8736156821250916e-001</leafValues></_>
        <_>
          <internalNodes>
            0 -1 165 1.3296544784680009e-004</internalNodes>
          <leafValues>
            -6.8866246938705444e-001 5.7252623140811920e-002</leafValues></_>
        <_>
          <internalNodes>
            0 -1 54 3.9698109030723572e-003</internalNodes>
          <leafValues>
            -6.1232036352157593e-001 5.5703353136777878e-002</leafValues></_></weakClassifiers></_>
    <!-- stage 2 -->
    <_>
      <maxWeakCount>46</maxWeakCount>
      <stageThreshold>-2.6239457130432129e+000</stageThreshold>
      <weakClassifiers>
        <_>
          <internalNodes>
            0 -1 159 2.8164932504296303e-002</internalNodes>
          <leafValues>
            -7.4298483133316040e-001 -4.0547391399741173e-003</leafValues></_>
        <_>
          <internalNodes>
            0 -1 37 1.9721467047929764e-002</internalNodes>
          <leafValues>
            -5.6747096776962280e-001 2.7097728848457336e-001</leafValues></_>
        <_>
          <internalNodes>
            0 -1 61 8.8615342974662781e-003</internalNodes>
          <leafValues>
            -6.0336327552795410e-001 1.6929121315479279e-001</leafValues></_>
        <_>
          <internalNodes>
            0 -1 260 2.2155668586492538e-002</internalNodes>
          <leafValues>
            2.6537156105041504e-001 -4.5270562171936035e-001</leafValues></_>
        <_>
          <internalNodes>
            0 -1 110 2.1872729063034058e-002</internalNodes>
          <leafValues>
            -3.2487037777900696e-001 3.0314472317695618e-001</leafValues></_>
        <_>
          <internalNodes>
            0 -1 142 2.1623518317937851e-002</internalNodes>
          <leafValues>
            -3.1334874033927917e-001 3.1776714324951172e-001</leafValues></_>
        <_>
          <internalNodes>
            0 -1 103 6.8232074379920959e-002</internalNodes>
          <leafValues>
            1.3928170502185822e-001 -6.3532352447509766e-001</leafValues></_>
        <_>
          <internalNodes>
            0 -1 210 3.2238123822025955e-004</internalNodes>
          <leafValues>
            -7.6599925756454468e-001 9.8750993609428406e-002</leafValues></_>
        <_>
          <internalNodes>
            0 -1 168 1.6092080622911453e-002</internalNodes>
          <leafValues>
            -3.0507117509841919e-001 1.9388681650161743e-001</leafValues></_>
        <_>
          <internalNodes>
            0 -1 30 1.0670563642634079e-004</internalNodes>
          <leafValues>
            -7.6208227872848511e-001 8.7562769651412964e-002</leafValues></_>
        <_>
          <internalNodes>
            0 -1 184 6.1253443360328674e-002</internalNodes>
          <leafValues>
            9.6869245171546936e-002 -5.9744721651077271e-001</leafValues></_>
        <_>
          <internalNodes>
            0 -1 122 3.3529132604598999e-002</internalNodes>
          <leafValues>
            -1.9852821528911591e-001 3.1249082088470459e-001</leafValues></_>
        <_>
          <internalNodes>
            0 -1 57 2.7709774440154433e-004</internalNodes>
          <leafValues>
            -8.1236392259597778e-001 6.2340322881937027e-002</leafValues></_>
        <_>
          <internalNodes>
            0 -1 172 1.3115081936120987e-002</internalNodes>
          <leafValues>
            -3.2691350579261780e-001 1.5669220685958862e-001</leafValues></_>
        <_>
          <internalNodes>
            0 -1 3 3.7862895987927914e-004</internalNodes>
          <leafValues>
            -7.4871963262557983e-001 7.4973076581954956e-002</leafValues></_>
        <_>
          <internalNodes>
            0 -1 114 1.1436615139245987e-002</internalNodes>
          <leafValues>
            1.9788955152034760e-001 -2.4315217137336731e-001</leafValues></_>
        <_>
          <internalNodes>
            0 -1 322 2.7819927781820297e-002</internalNodes>
          <leafValues>
            -1.6893331706523895e-001 3.0567979812622070e-001</leafValues></_>
        <_>
          <internalNodes>
            0 -1 282 1.4601134171243757e-004</internalNodes>
          <leafValues>
            -6.8962925672531128e-001 6.3477069139480591e-002</leafValues></_>
        <_>
          <internalNodes>
            0 -1 205 1.4352725818753242e-002</internalNodes>
          <leafValues>
            -2.9196441173553467e-001 1.4836253225803375e-001</leafValues></_>
        <_>
          <internalNodes>
            0 -1 46 1.4183221384882927e-002</internalNodes>
          <leafValues>
            1.5962851047515869e-001 -2.4936044216156006e-001</leafValues></_>
        <_>
          <internalNodes>
            0 -1 91 2.6526475325226784e-002</internalNodes>
          <leafValues>
            -1.5277542173862457e-001 2.8348606824874878e-001</leafValues></_>
        <_>
          <internalNodes>
            0 -1 146 4.5159142464399338e-003</internalNodes>
          <leafValues>
            -4.4224372506141663e-001 9.2928342521190643e-002</leafValues></_>
        <_>
          <internalNodes>
            0 -1 171 3.3736601471900940e-003</internalNodes>
          <leafValues>
            -7.2763711214065552e-001 5.0460200756788254e-002</leafValues></_>
        <_>
          <internalNodes>
            0 -1 250 8.1131972372531891e-002</internalNodes>
          <leafValues>
            -6.4691573381423950e-002 6.8078404664993286e-001</leafValues></_>
        <_>
          <internalNodes>
            0 -1 201 2.7968245558440685e-004</internalNodes>
          <leafValues>
            -6.9943845272064209e-001 6.7596144974231720e-002</leafValues></_>
        <_>
          <internalNodes>
            0 -1 94 3.0449967831373215e-002</internalNodes>
          <leafValues>
            1.5379066765308380e-001 -2.3287504911422729e-001</leafValues></_>
        <_>
          <internalNodes>
            0 -1 8 5.7657606899738312e-002</internalNodes>
          <leafValues>
            1.0421461611986160e-001 -3.7721207737922668e-001</leafValues></_>
        <_>
          <internalNodes>
            0 -1 284 1.2475021183490753e-002</internalNodes>
          <leafValues>
            -2.4573118984699249e-001 1.4558424055576324e-001</leafValues></_>
        <_>
          <internalNodes>
            0 -1 175 5.9975527226924896e-002</internalNodes>
          <leafValues>
            8.6460374295711517e-002 -4.5155376195907593e-001</leafValues></_>
        <_>
          <internalNodes>
            0 -1 48 3.7886272184550762e-004</internalNodes>
          <leafValues>
            -7.6684159040451050e-001 4.5006394386291504e-002</leafValues></_>
        <_>
          <internalNodes>
            0 -1 107 4.3096046894788742e-002</internalNodes>
          <leafValues>
            9.7384870052337646e-002 -3.3076870441436768e-001</leafValues></_>
        <_>
          <internalNodes>
            0 -1 112 1.4341869950294495e-001</internalNodes>
          <leafValues>
            4.0421385318040848e-002 -7.7979207038879395e-001</leafValues></_>
        <_>
          <internalNodes>
            0 -1 17 1.1582985520362854e-002</internalNodes>
          <leafValues>
            1.8705643713474274e-001 -1.7500023543834686e-001</leafValues></_>
        <_>
          <internalNodes>
            0 -1 124 6.5622152760624886e-003</internalNodes>
          <leafValues>
            -3.3708146214485168e-001 1.0309211164712906e-001</leafValues></_>
        <_>
          <internalNodes>
            0 -1 85 2.2767981514334679e-002</internalNodes>
          <leafValues>
            1.7053024470806122e-001 -1.6444674134254456e-001</leafValues></_>
        <_>
          <internalNodes>
            0 -1 111 8.7038031779229641e-004</internalNodes>
          <leafValues>
            -6.2403976917266846e-001 3.9355836808681488e-002</leafValues></_>
        <_>
          <internalNodes>
            0 -1 25 3.9771314710378647e-002</internalNodes>
          <leafValues>
            -8.9943833649158478e-002 3.0182614922523499e-001</leafValues></_>
        <_>
          <internalNodes>
            0 -1 242 9.7322966903448105e-003</internalNodes>
          <leafValues>
            2.4166847765445709e-001 -9.9588982760906219e-002</leafValues></_>
        <_>
          <internalNodes>
            0 -1 234 5.1816094666719437e-002</internalNodes>
          <leafValues>
            -6.9976605474948883e-002 4.0968081355094910e-001</leafValues></_>
        <_>
          <internalNodes>
            0 -1 18 8.7994309142231941e-003</internalNodes>
          <leafValues>
            -3.3172231912612915e-001 7.7412523329257965e-002</leafValues></_>
        <_>
          <internalNodes>
            0 -1 252 1.2098659761250019e-002</internalNodes>
          <leafValues>
            1.6099674999713898e-001 -1.7499029636383057e-001</leafValues></_>
        <_>
          <internalNodes>
            0 -1 4 9.1442242264747620e-003</internalNodes>
          <leafValues>
            3.0422750115394592e-001 -9.3234859406948090e-002</leafValues></_>
        <_>
          <internalNodes>
            0 -1 39 3.1106239184737206e-002</internalNodes>
          <leafValues>
            -1.5106464922428131e-001 2.1536527574062347e-001</leafValues></_>
        <_>
          <internalNodes>
            0 -1 159 5.1760352216660976e-003</internalNodes>
          <leafValues>
            -3.9224514365196228e-001 7.0503152906894684e-002</leafValues></_>
        <_>
          <internalNodes>
            0 -1 11 5.9338437858968973e-004</internalNodes>
          <leafValues>
            -6.9041991233825684e-001 3.4326016902923584e-002</leafValues></_>
        <_>
          <internalNodes>
            0 -1 105 1.9097134470939636e-002</internalNodes>
          <leafValues>
            -1.4344762265682220e-001 1.8536439538002014e-001</leafValues></_></weakClassifiers></_>
    <!-- stage 3 -->
    <_>
      <maxWeakCount>64</maxWeakCount>
      <stageThreshold>-2.4883365631103516e+000</stageThreshold>
      <weakClassifiers>
        <_>
          <internalNodes>
            0 -1 110 4.6215601265430450e-002</internalNodes>
          <leafValues>
            -6.7017108201980591e-001 2.1845082938671112e-001</leafValues></_>
        <_>
          <internalNodes>
            0 -1 224 1.0699959471821785e-002</internalNodes>
          <leafValues>
            2.9556795954704285e-001 -3.9603248238563538e-001</leafValues></_>
        <_>
          <internalNodes>
            0 -1 37 3.4520678222179413e-002</internalNodes>
          <leafValues>
            -2.6163226366043091e-001 4.5113879442214966e-001</leafValues></_>
        <_>
          <internalNodes>
            0 -1 160 3.4172356128692627e-002</internalNodes>
          <leafValues>
            -2.3447930812835693e-001 4.2450582981109619e-001</leafValues></_>
        <_>
          <internalNodes>
            0 -1 172 1.9808471202850342e-002</internalNodes>
          <leafValues>
            -2.9005870223045349e-001 3.4603795409202576e-001</leafValues></_>
        <_>
          <internalNodes>
            0 -1 53 2.3790959268808365e-002</internalNodes>
          <leafValues>
            2.4488393962383270e-001 -3.5479924082756042e-001</leafValues></_>
        <_>
          <internalNodes>
            0 -1 211 2.4393469095230103e-002</internalNodes>
          <leafValues>
            2.1207411587238312e-001 -3.2918372750282288e-001</leafValues></_>
        <_>
          <internalNodes>
            0 -1 85 6.5141841769218445e-002</internalNodes>
          <leafValues>
            1.4872992038726807e-001 -5.6743854284286499e-001</leafValues></_>
        <_>
          <internalNodes>
            0 -1 159 3.6423582583665848e-002</internalNodes>
          <leafValues>
            -2.0169311761856079e-001 3.2741364836692810e-001</leafValues></_>
        <_>
          <internalNodes>
            0 -1 308 1.0866681113839149e-002</internalNodes>
          <leafValues>
            -3.3169388771057129e-001 2.0800824463367462e-001</leafValues></_>
        <_>
          <internalNodes>
            0 -1 168 1.6001513227820396e-002</internalNodes>
          <leafValues>
            -2.8545805811882019e-001 1.9338537752628326e-001</leafValues></_>
        <_>
          <internalNodes>
            0 -1 314 4.6270325779914856e-002</internalNodes>
          <leafValues>
            1.3094542920589447e-001 -3.9221659302711487e-001</leafValues></_>
        <_>
          <internalNodes>
            0 -1 202 4.1448056697845459e-002</internalNodes>
          <leafValues>
            1.4986298978328705e-001 -4.1104161739349365e-001</leafValues></_>
        <_>
          <internalNodes>
            0 -1 109 1.2396851554512978e-002</internalNodes>
          <leafValues>
            -2.8748208284378052e-001 1.6604280471801758e-001</leafValues></_>
        <_>
          <internalNodes>
            0 -1 233 9.5343165099620819e-002</internalNodes>
          <leafValues>
            7.3190033435821533e-002 -6.5474921464920044e-001</leafValues></_>
        <_>
          <internalNodes>
            0 -1 250 1.8547918647527695e-002</internalNodes>
          <leafValues>
            -2.7707302570343018e-001 1.7906934022903442e-001</leafValues></_>
        <_>
          <internalNodes>
            0 -1 56 1.0325726121664047e-002</internalNodes>
          <leafValues>
            -2.6816955208778381e-001 1.5110127627849579e-001</leafValues></_>
        <_>
          <internalNodes>
            0 -1 184 1.0833665728569031e-002</internalNodes>
          <leafValues>
            3.3743634819984436e-001 -1.1820424348115921e-001</leafValues></_>
        <_>
          <internalNodes>
            0 -1 8 1.0600056499242783e-002</internalNodes>
          <leafValues>
            3.4636044502258301e-001 -1.2417005002498627e-001</leafValues></_>
        <_>
          <internalNodes>
            0 -1 36 1.4707044698297977e-002</internalNodes>
          <leafValues>
            -2.8288912773132324e-001 1.3317722082138062e-001</leafValues></_>
        <_>
          <internalNodes>
            0 -1 260 8.7788272649049759e-003</internalNodes>
          <leafValues>
            3.0429738759994507e-001 -1.4850190281867981e-001</leafValues></_>
        <_>
          <internalNodes>
            0 -1 205 1.1289246380329132e-002</internalNodes>
          <leafValues>
            -3.4090048074722290e-001 1.1384578049182892e-001</leafValues></_>
        <_>
          <internalNodes>
            0 -1 171 1.4693828299641609e-002</internalNodes>
          <leafValues>
            -2.5487214326858521e-001 1.2885376811027527e-001</leafValues></_>
        <_>
          <internalNodes>
            0 -1 215 9.2051632702350616e-002</internalNodes>
          <leafValues>
            6.8612515926361084e-002 -5.0721287727355957e-001</leafValues></_>
        <_>
          <internalNodes>
            0 -1 122 2.3421486839652061e-002</internalNodes>
          <leafValues>
            -1.6577519476413727e-001 1.6754831373691559e-001</leafValues></_>
        <_>
          <internalNodes>
            0 -1 265 1.1103822849690914e-002</internalNodes>
          <leafValues>
            3.2726910710334778e-001 -9.7121402621269226e-002</leafValues></_>
        <_>
          <internalNodes>
            0 -1 91 3.2008439302444458e-002</internalNodes>
          <leafValues>
            -8.6609005928039551e-002 3.0616825819015503e-001</leafValues></_>
        <_>
          <internalNodes>
            0 -1 269 7.5294792652130127e-002</internalNodes>
          <leafValues>
            6.9808378815650940e-002 -4.1751378774642944e-001</leafValues></_>
        <_>
          <internalNodes>
            0 -1 113 2.2392364218831062e-002</internalNodes>
          <leafValues>
            1.1342606693506241e-001 -2.1402534842491150e-001</leafValues></_>
        <_>
          <internalNodes>
            0 -1 38 7.3093459941446781e-003</internalNodes>
          <leafValues>
            -3.0617710947990417e-001 7.5520947575569153e-002</leafValues></_>
        <_>
          <internalNodes>
            0 -1 284 7.2016865015029907e-002</internalNodes>
          <leafValues>
            -4.8992931842803955e-002 5.2072554826736450e-001</leafValues></_>
        <_>
          <internalNodes>
            0 -1 203 2.7153842151165009e-002</internalNodes>
          <leafValues>
            -1.0636103153228760e-001 2.0934031903743744e-001</leafValues></_>
        <_>
          <internalNodes>
            0 -1 310 2.5606311857700348e-002</internalNodes>
          <leafValues>
            1.6564351320266724e-001 -1.6682396829128265e-001</leafValues></_>
        <_>
          <internalNodes>
            0 -1 107 9.1906301677227020e-003</internalNodes>
          <leafValues>
            2.7912297844886780e-001 -7.8266106545925140e-002</leafValues></_>
        <_>
          <internalNodes>
            0 -1 315 1.9146293401718140e-002</internalNodes>
          <leafValues>
            -1.5772093832492828e-001 1.6837193071842194e-001</leafValues></_>
        <_>
          <internalNodes>
            0 -1 8 3.7119779735803604e-002</internalNodes>
          <leafValues>
            1.1357020586729050e-001 -1.9086520373821259e-001</leafValues></_>
        <_>
          <internalNodes>
            0 -1 4 9.2438906431198120e-003</internalNodes>
          <leafValues>
            3.1182217597961426e-001 -9.1785393655300140e-002</leafValues></_>
        <_>
          <internalNodes>
            0 -1 267 2.5801779702305794e-002</internalNodes>
          <leafValues>
            -1.1478269845247269e-001 1.8013471364974976e-001</leafValues></_>
        <_>
          <internalNodes>
            0 -1 209 1.9851262914016843e-004</internalNodes>
          <leafValues>
            -8.1142616271972656e-001 2.8360618278384209e-002</leafValues></_>
        <_>
          <internalNodes>
            0 -1 322 8.2244634628295898e-002</internalNodes>
          <leafValues>
            -4.3218888342380524e-002 6.1015409231185913e-001</leafValues></_>
        <_>
          <internalNodes>
            0 -1 323 2.4299878627061844e-002</internalNodes>
          <leafValues>
            1.6961026191711426e-001 -1.4281050860881805e-001</leafValues></_>
        <_>
          <internalNodes>
            0 -1 2 2.5961469858884811e-002</internalNodes>
          <leafValues>
            -1.2224305421113968e-001 2.0873710513114929e-001</leafValues></_>
        <_>
          <internalNodes>
            0 -1 61 2.6821386069059372e-002</internalNodes>
          <leafValues>
            -1.3483431935310364e-001 1.7574182152748108e-001</leafValues></_>
        <_>
          <internalNodes>
            0 -1 115 2.1573522826656699e-004</internalNodes>
          <leafValues>
            -7.0512139797210693e-001 2.7970237657427788e-002</leafValues></_>
        <_>
          <internalNodes>
            0 -1 208 8.3984788507223129e-003</internalNodes>
          <leafValues>
            -2.3911046981811523e-001 7.6455563306808472e-002</leafValues></_>
        <_>
          <internalNodes>
            0 -1 90 5.4292410612106323e-002</internalNodes>
          <leafValues>
            -6.7126601934432983e-002 3.0091601610183716e-001</leafValues></_>
        <_>
          <internalNodes>
            0 -1 262 3.8270006189122796e-004</internalNodes>
          <leafValues>
            -6.1018204689025879e-001 3.2281570136547089e-002</leafValues></_>
        <_>
          <internalNodes>
            0 -1 116 5.5330343544483185e-002</internalNodes>
          <leafValues>
            6.0044985264539719e-002 -2.8170493245124817e-001</leafValues></_>
        <_>
          <internalNodes>
            0 -1 292 8.5666410624980927e-002</internalNodes>
          <leafValues>
            3.5552956163883209e-002 -5.3414183855056763e-001</leafValues></_>
        <_>
          <internalNodes>
            0 -1 35 7.9177785664796829e-003</internalNodes>
          <leafValues>
            2.3560234904289246e-001 -7.4621587991714478e-002</leafValues></_>
        <_>
          <internalNodes>
            0 -1 58 1.2964665889739990e-002</internalNodes>
          <leafValues>
            2.1280361711978912e-001 -8.7658181786537170e-002</leafValues></_>
        <_>
          <internalNodes>
            0 -1 51 1.5833689272403717e-001</internalNodes>
          <leafValues>
            2.1725146099925041e-002 -9.2991578578948975e-001</leafValues></_>
        <_>
          <internalNodes>
            0 -1 62 5.4440371692180634e-002</internalNodes>
          <leafValues>
            8.7291039526462555e-002 -2.1749556064605713e-001</leafValues></_>
        <_>
          <internalNodes>
            0 -1 18 7.5062863528728485e-002</internalNodes>
          <leafValues>
            -4.5282322913408279e-002 4.1260370612144470e-001</leafValues></_>
        <_>
          <internalNodes>
            0 -1 321 2.4625960737466812e-002</internalNodes>
          <leafValues>
            -8.8779933750629425e-002 2.0249602198600769e-001</leafValues></_>
        <_>
          <internalNodes>
            0 -1 187 6.3262313604354858e-002</internalNodes>
          <leafValues>
            -4.4599942862987518e-002 4.3040937185287476e-001</leafValues></_>
        <_>
          <internalNodes>
            0 -1 66 2.6483349502086639e-003</internalNodes>
          <leafValues>
            -4.3285346031188965e-001 5.7431396096944809e-002</leafValues></_>
        <_>
          <internalNodes>
            0 -1 175 1.2626147828996181e-002</internalNodes>
          <leafValues>
            2.3836511373519897e-001 -9.3052573502063751e-002</leafValues></_>
        <_>
          <internalNodes>
            0 -1 124 9.0907916426658630e-002</internalNodes>
          <leafValues>
            -3.0734924599528313e-002 6.0052382946014404e-001</leafValues></_>
        <_>
          <internalNodes>
            0 -1 323 1.4126574993133545e-001</internalNodes>
          <leafValues>
            4.0171276777982712e-002 -5.5172163248062134e-001</leafValues></_>
        <_>
          <internalNodes>
            0 -1 53 5.0282083451747894e-002</internalNodes>
          <leafValues>
            4.7359842807054520e-002 -3.5560858249664307e-001</leafValues></_>
        <_>
          <internalNodes>
            0 -1 160 3.8524549454450607e-003</internalNodes>
          <leafValues>
            -4.3637362122535706e-001 4.2585130780935287e-002</leafValues></_>
        <_>
          <internalNodes>
            0 -1 233 9.9478345364332199e-003</internalNodes>
          <leafValues>
            2.0724335312843323e-001 -9.0585239231586456e-002</leafValues></_>
        <_>
          <internalNodes>
            0 -1 292 1.0837750509381294e-002</internalNodes>
          <leafValues>
            2.5403386354446411e-001 -7.5108960270881653e-002</leafValues></_></weakClassifiers></_>
    <!-- stage 4 -->
    <_>
      <maxWeakCount>94</maxWeakCount>
      <stageThreshold>-2.3747971057891846e+000</stageThreshold>
      <weakClassifiers>
        <_>
          <internalNodes>
            0 -1 111 3.4349642693996429e-002</internalNodes>
          <leafValues>
            -7.4012768268585205e-001 7.3404856026172638e-002</leafValues></_>
        <_>
          <internalNodes>
            0 -1 260 1.6435390338301659e-002</internalNodes>
          <leafValues>
            2.4716551601886749e-001 -5.1379704475402832e-001</leafValues></_>
        <_>
          <internalNodes>
            0 -1 1 3.1160023063421249e-002</internalNodes>
          <leafValues>
            -2.6119491457939148e-001 3.5845464468002319e-001</leafValues></_>
        <_>
          <internalNodes>
            0 -1 8 4.7033019363880157e-002</internalNodes>
          <leafValues>
            1.9605717062950134e-001 -4.1381198167800903e-001</leafValues></_>
        <_>
          <internalNodes>
            0 -1 307 1.3418991118669510e-002</internalNodes>
          <leafValues>
            -2.8186860680580139e-001 2.4260957539081573e-001</leafValues></_>
        <_>
          <internalNodes>
            0 -1 159 2.2060871124267578e-002</internalNodes>
          <leafValues>
            -3.0456972122192383e-001 2.6221859455108643e-001</leafValues></_>
        <_>
          <internalNodes>
            0 -1 18 2.8394050896167755e-002</internalNodes>
          <leafValues>
            -2.4745571613311768e-001 2.7989158034324646e-001</leafValues></_>
        <_>
          <internalNodes>
            0 -1 107 4.4312130659818649e-002</internalNodes>
          <leafValues>
            1.1531016975641251e-001 -3.9769166707992554e-001</leafValues></_>
        <_>
          <internalNodes>
            0 -1 171 2.2822152823209763e-002</internalNodes>
          <leafValues>
            -2.4942879378795624e-001 2.1035274863243103e-001</leafValues></_>
        <_>
          <internalNodes>
            0 -1 233 6.1352737247943878e-002</internalNodes>
          <leafValues>
            1.2211133539676666e-001 -4.3384310603141785e-001</leafValues></_>
        <_>
          <internalNodes>
            0 -1 115 2.3822583258152008e-002</internalNodes>
          <leafValues>
            1.3863982260227203e-001 -3.2300844788551331e-001</leafValues></_>
        <_>
          <internalNodes>
            0 -1 204 1.6814365983009338e-002</internalNodes>
          <leafValues>
            -2.2326906025409698e-001 1.9132348895072937e-001</leafValues></_>
        <_>
          <internalNodes>
            0 -1 91 1.1476306244730949e-002</internalNodes>
          <leafValues>
            -2.5979971885681152e-001 1.4349311590194702e-001</leafValues></_>
        <_>
          <internalNodes>
            0 -1 110 1.4129618182778358e-002</internalNodes>
          <leafValues>
            -2.2749024629592896e-001 1.5342941880226135e-001</leafValues></_>
        <_>
          <internalNodes>
            0 -1 284 1.1930332519114017e-002</internalNodes>
          <leafValues>
            -2.5419288873672485e-001 1.4552377164363861e-001</leafValues></_>
        <_>
          <internalNodes>
            0 -1 224 2.3222053423523903e-002</internalNodes>
          <leafValues>
            1.3687416911125183e-001 -2.1844780445098877e-001</leafValues></_>
        <_>
          <internalNodes>
            0 -1 169 2.2244775667786598e-002</internalNodes>
          <leafValues>
            -1.9474561512470245e-001 1.6932564973831177e-001</leafValues></_>
        <_>
          <internalNodes>
            0 -1 250 7.7877432107925415e-002</internalNodes>
          <leafValues>
            -6.2162499874830246e-002 4.7532516717910767e-001</leafValues></_>
        <_>
          <internalNodes>
            0 -1 122 3.2694652676582336e-002</internalNodes>
          <leafValues>
            -1.3198547065258026e-001 2.2738099098205566e-001</leafValues></_>
        <_>
          <internalNodes>
            0 -1 172 2.5809012353420258e-002</internalNodes>
          <leafValues>
            -1.2957561016082764e-001 2.3245504498481750e-001</leafValues></_>
        <_>
          <internalNodes>
            0 -1 145 1.6949793323874474e-002</internalNodes>
          <leafValues>
            -1.8662744760513306e-001 1.6330215334892273e-001</leafValues></_>
        <_>
          <internalNodes>
            0 -1 21 3.2356396317481995e-002</internalNodes>
          <leafValues>
            -1.1929659545421600e-001 2.7532911300659180e-001</leafValues></_>
        <_>
          <internalNodes>
            0 -1 4 7.2896508499979973e-003</internalNodes>
          <leafValues>
            3.4514284133911133e-001 -9.0648017823696136e-002</leafValues></_>
        <_>
          <internalNodes>
            0 -1 323 2.6958258822560310e-002</internalNodes>
          <leafValues>
            1.6399222612380981e-001 -1.4292594790458679e-001</leafValues></_>
        <_>
          <internalNodes>
            0 -1 322 2.7710396796464920e-002</internalNodes>
          <leafValues>
            -1.3868862390518188e-001 1.9800028204917908e-001</leafValues></_>
        <_>
          <internalNodes>
            0 -1 65 9.9859414622187614e-003</internalNodes>
          <leafValues>
            -2.0388376712799072e-001 1.1253653466701508e-001</leafValues></_>
        <_>
          <internalNodes>
            0 -1 175 7.9711712896823883e-003</internalNodes>
          <leafValues>
            3.0439448356628418e-001 -7.6039560139179230e-002</leafValues></_>
        <_>
          <internalNodes>
            0 -1 160 3.4624994732439518e-003</internalNodes>
          <leafValues>
            -5.4548615217208862e-001 3.7519883364439011e-002</leafValues></_>
        <_>
          <internalNodes>
            0 -1 53 3.9018414914608002e-002</internalNodes>
          <leafValues>
            7.0396058261394501e-002 -3.0510058999061584e-001</leafValues></_>
        <_>
          <internalNodes>
            0 -1 37 1.3403904158622026e-003</internalNodes>
          <leafValues>
            -7.3280376195907593e-001 2.8036609292030334e-002</leafValues></_>
        <_>
          <internalNodes>
            0 -1 130 8.4557635709643364e-003</internalNodes>
          <leafValues>
            2.3127909004688263e-001 -8.5536830127239227e-002</leafValues></_>
        <_>
          <internalNodes>
            0 -1 68 9.6081718802452087e-003</internalNodes>
          <leafValues>
            -2.3011828958988190e-001 1.1748945713043213e-001</leafValues></_>
        <_>
          <internalNodes>
            0 -1 38 1.7400033771991730e-002</internalNodes>
          <leafValues>
            -1.5377704799175262e-001 1.3247786462306976e-001</leafValues></_>
        <_>
          <internalNodes>
            0 -1 116 1.5843346714973450e-001</internalNodes>
          <leafValues>
            -2.9060075059533119e-002 6.6813325881958008e-001</leafValues></_>
        <_>
          <internalNodes>
            0 -1 200 3.8749288069084287e-004</internalNodes>
          <leafValues>
            -6.8929409980773926e-001 3.0743321403861046e-002</leafValues></_>
        <_>
          <internalNodes>
            0 -1 317 3.1569186598062515e-002</internalNodes>
          <leafValues>
            -6.8971686065196991e-002 2.7960202097892761e-001</leafValues></_>
        <_>
          <internalNodes>
            0 -1 160 2.3605931550264359e-002</internalNodes>
          <leafValues>
            -1.5575850009918213e-001 1.4212888479232788e-001</leafValues></_>
        <_>
          <internalNodes>
            0 -1 8 7.1269734762609005e-003</internalNodes>
          <leafValues>
            2.8037869930267334e-001 -7.0047043263912201e-002</leafValues></_>
        <_>
          <internalNodes>
            0 -1 187 6.5036550164222717e-002</internalNodes>
          <leafValues>
            -4.2683083564043045e-002 4.2050293087959290e-001</leafValues></_>
        <_>
          <internalNodes>
            0 -1 242 7.4366410262882710e-003</internalNodes>
          <leafValues>
            2.7456551790237427e-001 -7.4024401605129242e-002</leafValues></_>
        <_>
          <internalNodes>
            0 -1 148 9.5192015171051025e-002</internalNodes>
          <leafValues>
            3.6814536899328232e-002 -5.4956001043319702e-001</leafValues></_>
        <_>
          <internalNodes>
            0 -1 147 2.7816469082608819e-004</internalNodes>
          <leafValues>
            -7.6570403575897217e-001 1.7877234145998955e-002</leafValues></_>
        <_>
          <internalNodes>
            0 -1 172 4.3233148753643036e-003</internalNodes>
          <leafValues>
            -3.7178680300712585e-001 4.4942811131477356e-002</leafValues></_>
        <_>
          <internalNodes>
            0 -1 229 5.2665760740637779e-003</internalNodes>
          <leafValues>
            3.1311106681823730e-001 -5.7294327765703201e-002</leafValues></_>
        <_>
          <internalNodes>
            0 -1 56 8.0625070258975029e-003</internalNodes>
          <leafValues>
            -2.3342458903789520e-001 8.1117980182170868e-002</leafValues></_>
        <_>
          <internalNodes>
            0 -1 287 6.0336615890264511e-002</internalNodes>
          <leafValues>
            7.9834423959255219e-002 -2.0400761067867279e-001</leafValues></_>
        <_>
          <internalNodes>
            0 -1 171 4.6968057751655579e-002</internalNodes>
          <leafValues>
            -7.5814023613929749e-002 2.4856036901473999e-001</leafValues></_>
        <_>
          <internalNodes>
            0 -1 90 5.4645337164402008e-002</internalNodes>
          <leafValues>
            -6.5866842865943909e-002 2.5774958729743958e-001</leafValues></_>
        <_>
          <internalNodes>
            0 -1 50 3.0524954199790955e-003</internalNodes>
          <leafValues>
            -4.3436560034751892e-001 4.1032992303371429e-002</leafValues></_>
        <_>
          <internalNodes>
            0 -1 294 8.9489817619323730e-002</internalNodes>
          <leafValues>
            1.9377514719963074e-002 -7.4890828132629395e-001</leafValues></_>
        <_>
          <internalNodes>
            0 -1 320 7.3137767612934113e-002</internalNodes>
          <leafValues>
            -3.4385211765766144e-002 4.9959439039230347e-001</leafValues></_>
        <_>
          <internalNodes>
            0 -1 2 1.1409099679440260e-003</internalNodes>
          <leafValues>
            -5.3454810380935669e-001 3.0102983117103577e-002</leafValues></_>
        <_>
          <internalNodes>
            0 -1 117 8.1541240215301514e-003</internalNodes>
          <leafValues>
            1.5740786492824554e-001 -9.5150284469127655e-002</leafValues></_>
        <_>
          <internalNodes>
            0 -1 123 4.0619293577037752e-004</internalNodes>
          <leafValues>
            -9.2014217376708984e-001 1.6682246699929237e-002</leafValues></_>
        <_>
          <internalNodes>
            0 -1 321 2.4115122505463660e-004</internalNodes>
          <leafValues>
            -6.7665743827819824e-001 1.5541869215667248e-002</leafValues></_>
        <_>
          <internalNodes>
            0 -1 262 6.7847338505089283e-004</internalNodes>
          <leafValues>
            -5.0158864259719849e-001 2.4086983874440193e-002</leafValues></_>
        <_>
          <internalNodes>
            0 -1 49 6.4582577906548977e-003</internalNodes>
          <leafValues>
            3.0665880441665649e-001 -4.7291889786720276e-002</leafValues></_>
        <_>
          <internalNodes>
            0 -1 62 6.3523344695568085e-002</internalNodes>
          <leafValues>
            7.9608529806137085e-002 -2.1176053583621979e-001</leafValues></_>
        <_>
          <internalNodes>
            0 -1 61 3.7815803661942482e-003</internalNodes>
          <leafValues>
            -5.0617629289627075e-001 2.9499441385269165e-002</leafValues></_>
        <_>
          <internalNodes>
            0 -1 71 9.8688993602991104e-003</internalNodes>
          <leafValues>
            2.1529918909072876e-001 -7.0709928870201111e-002</leafValues></_>
        <_>
          <internalNodes>
            0 -1 274 7.1872875094413757e-002</internalNodes>
          <leafValues>
            4.0289249271154404e-002 -4.3681699037551880e-001</leafValues></_>
        <_>
          <internalNodes>
            0 -1 178 3.0604917556047440e-003</internalNodes>
          <leafValues>
            -5.4527896642684937e-001 2.4639619514346123e-002</leafValues></_>
        <_>
          <internalNodes>
            0 -1 269 9.4867989420890808e-002</internalNodes>
          <leafValues>
            3.8546662777662277e-002 -3.8899856805801392e-001</leafValues></_>
        <_>
          <internalNodes>
            0 -1 115 1.0193184018135071e-002</internalNodes>
          <leafValues>
            1.5409629046916962e-001 -9.8418451845645905e-002</leafValues></_>
        <_>
          <internalNodes>
            0 -1 168 1.9022408872842789e-002</internalNodes>
          <leafValues>
            -1.2284436076879501e-001 1.1693536490201950e-001</leafValues></_>
        <_>
          <internalNodes>
            0 -1 38 4.1450373828411102e-002</internalNodes>
          <leafValues>
            -6.0591466724872589e-002 2.2266907989978790e-001</leafValues></_>
        <_>
          <internalNodes>
            0 -1 26 2.3463949561119080e-001</internalNodes>
          <leafValues>
            -1.7060613259673119e-002 7.8481996059417725e-001</leafValues></_>
        <_>
          <internalNodes>
            0 -1 158 4.8061653971672058e-002</internalNodes>
          <leafValues>
            -5.9573557227849960e-002 2.2641165554523468e-001</leafValues></_>
        <_>
          <internalNodes>
            0 -1 249 8.2093328237533569e-002</internalNodes>
          <leafValues>
            4.0467239916324615e-002 -4.7519922256469727e-001</leafValues></_>
        <_>
          <internalNodes>
            0 -1 18 4.0718754753470421e-003</internalNodes>
          <leafValues>
            -4.8965215682983398e-001 2.6092447340488434e-002</leafValues></_>
        <_>
          <internalNodes>
            0 -1 108 1.0264534503221512e-003</internalNodes>
          <leafValues>
            -5.4752409458160400e-001 2.1535569801926613e-002</leafValues></_>
        <_>
          <internalNodes>
            0 -1 209 1.6908265650272369e-002</internalNodes>
          <leafValues>
            -1.1007252335548401e-001 1.1616860330104828e-001</leafValues></_>
        <_>
          <internalNodes>
            0 -1 196 3.8787148892879486e-002</internalNodes>
          <leafValues>
            -9.3442402780056000e-002 1.7358227074146271e-001</leafValues></_>
        <_>
          <internalNodes>
            0 -1 211 1.2105203233659267e-002</internalNodes>
          <leafValues>
            1.5082092583179474e-001 -8.3960779011249542e-002</leafValues></_>
        <_>
          <internalNodes>
            0 -1 226 2.8622739017009735e-002</internalNodes>
          <leafValues>
            -6.0123398900032043e-002 2.3164688050746918e-001</leafValues></_>
        <_>
          <internalNodes>
            0 -1 233 8.8684484362602234e-003</internalNodes>
          <leafValues>
            2.1966336667537689e-001 -6.4198806881904602e-002</leafValues></_>
        <_>
          <internalNodes>
            0 -1 232 3.0770804733037949e-002</internalNodes>
          <leafValues>
            -9.6391551196575165e-002 1.7065523564815521e-001</leafValues></_>
        <_>
          <internalNodes>
            0 -1 176 5.4762390209361911e-004</internalNodes>
          <leafValues>
            -6.5651756525039673e-001 1.9252026453614235e-002</leafValues></_>
        <_>
          <internalNodes>
            0 -1 163 2.9187449254095554e-003</internalNodes>
          <leafValues>
            -3.5197797417640686e-001 3.0264362692832947e-002</leafValues></_>
        <_>
          <internalNodes>
            0 -1 215 2.6435758918523788e-002</internalNodes>
          <leafValues>
            1.1461081355810165e-001 -1.0118496417999268e-001</leafValues></_>
        <_>
          <internalNodes>
            0 -1 290 5.2762389183044434e-002</internalNodes>
          <leafValues>
            2.6767518371343613e-002 -4.7893583774566650e-001</leafValues></_>
        <_>
          <internalNodes>
            0 -1 96 1.0252100229263306e-001</internalNodes>
          <leafValues>
            1.4918123371899128e-002 -6.6440671682357788e-001</leafValues></_>
        <_>
          <internalNodes>
            0 -1 292 1.2888234853744507e-001</internalNodes>
          <leafValues>
            1.0681977495551109e-002 -8.6121565103530884e-001</leafValues></_>
        <_>
          <internalNodes>
            0 -1 116 4.5224942266941071e-002</internalNodes>
          <leafValues>
            6.3267029821872711e-002 -1.8825589120388031e-001</leafValues></_>
        <_>
          <internalNodes>
            0 -1 322 8.0806374549865723e-002</internalNodes>
          <leafValues>
            -3.1254138797521591e-002 3.8723641633987427e-001</leafValues></_>
        <_>
          <internalNodes>
            0 -1 115 2.8455798747017980e-004</internalNodes>
          <leafValues>
            -6.4784705638885498e-001 1.8976444378495216e-002</leafValues></_>
        <_>
          <internalNodes>
            0 -1 52 6.8593220785260201e-003</internalNodes>
          <leafValues>
            1.8678852915763855e-001 -7.4309848248958588e-002</leafValues></_>
        <_>
          <internalNodes>
            0 -1 221 2.1565284579992294e-002</internalNodes>
          <leafValues>
            -1.0123610496520996e-001 1.1269070953130722e-001</leafValues></_>
        <_>
          <internalNodes>
            0 -1 112 1.3257732987403870e-001</internalNodes>
          <leafValues>
            1.9511120393872261e-002 -5.4981607198715210e-001</leafValues></_>
        <_>
          <internalNodes>
            0 -1 240 1.1817669868469238e-001</internalNodes>
          <leafValues>
            1.1963227763772011e-002 -7.1364921331405640e-001</leafValues></_>
        <_>
          <internalNodes>
            0 -1 103 1.2716940045356750e-001</internalNodes>
          <leafValues>
            1.1101931333541870e-002 -8.0698204040527344e-001</leafValues></_>
        <_>
          <internalNodes>
            0 -1 206 6.1208400875329971e-003</internalNodes>
          <leafValues>
            3.1882399320602417e-001 -3.7087995558977127e-002</leafValues></_>
        <_>
          <internalNodes>
            0 -1 207 4.0239053778350353e-003</internalNodes>
          <leafValues>
            -3.8350731134414673e-001 3.0825957655906677e-002</leafValues></_>
        <_>
          <internalNodes>
            0 -1 275 3.5614110529422760e-002</internalNodes>
          <leafValues>
            -5.5605307221412659e-002 1.9646640121936798e-001</leafValues></_></weakClassifiers></_>
    <!-- stage 5 -->
    <_>
      <maxWeakCount>128</maxWeakCount>
      <stageThreshold>-2.1486539840698242e+000</stageThreshold>
      <weakClassifiers>
        <_>
          <internalNodes>
            0 -1 17 6.7666051909327507e-003</internalNodes>
          <leafValues>
            1.0306406766176224e-001 -6.8974584341049194e-001</leafValues></_>
        <_>
          <internalNodes>
            0 -1 159 3.7668112665414810e-002</internalNodes>
          <leafValues>
            -3.5989511013031006e-001 4.1446793079376221e-001</leafValues></_>
        <_>
          <internalNodes>
            0 -1 110 2.8882605955004692e-002</internalNodes>
          <leafValues>
            -2.7128797769546509e-001 3.3941015601158142e-001</leafValues></_>
        <_>
          <internalNodes>
            0 -1 45 1.5562498942017555e-002</internalNodes>
          <leafValues>
            2.3742128908634186e-001 -3.5061651468276978e-001</leafValues></_>
        <_>
          <internalNodes>
            0 -1 168 1.2032035738229752e-002</internalNodes>
          <leafValues>
            -3.5694032907485962e-001 1.6512978076934814e-001</leafValues></_>
        <_>
          <internalNodes>
            0 -1 160 4.8607178032398224e-002</internalNodes>
          <leafValues>
            -9.1160044074058533e-002 3.7173640727996826e-001</leafValues></_>
        <_>
          <internalNodes>
            0 -1 101 1.3082306832075119e-002</internalNodes>
          <leafValues>
            -2.4120689928531647e-001 1.5980708599090576e-001</leafValues></_>
        <_>
          <internalNodes>
            0 -1 225 4.5747026801109314e-002</internalNodes>
          <leafValues>
            9.8453775048255920e-002 -4.2910048365592957e-001</leafValues></_>
        <_>
          <internalNodes>
            0 -1 114 1.4329113066196442e-002</internalNodes>
          <leafValues>
            1.4493417739868164e-001 -2.1342970430850983e-001</leafValues></_>
        <_>
          <internalNodes>
            0 -1 284 2.2345717996358871e-002</internalNodes>
          <leafValues>
            -1.6268388926982880e-001 1.8412576615810394e-001</leafValues></_>
        <_>
          <internalNodes>
            0 -1 145 5.5722948163747787e-003</internalNodes>
          <leafValues>
            -4.1830638051033020e-001 7.3301076889038086e-002</leafValues></_>
        <_>
          <internalNodes>
            0 -1 260 2.6709850877523422e-002</internalNodes>
          <leafValues>
            9.6000358462333679e-002 -2.7213349938392639e-001</leafValues></_>
        <_>
          <internalNodes>
            0 -1 130 8.1134140491485596e-003</internalNodes>
          <leafValues>
            2.7783012390136719e-001 -1.0025063902139664e-001</leafValues></_>
        <_>
          <internalNodes>
            0 -1 10 6.0455150902271271e-002</internalNodes>
          <leafValues>
            4.0883008390665054e-002 -6.1004906892776489e-001</leafValues></_>
        <_>
          <internalNodes>
            0 -1 172 9.3775782734155655e-003</internalNodes>
          <leafValues>
            -2.9325145483016968e-001 8.1753060221672058e-002</leafValues></_>
        <_>
          <internalNodes>
            0 -1 111 4.5152824372053146e-002</internalNodes>
          <leafValues>
            -1.0161866992712021e-001 2.6078683137893677e-001</leafValues></_>
        <_>
          <internalNodes>
            0 -1 169 1.1131990700960159e-002</internalNodes>
          <leafValues>
            -3.3564722537994385e-001 9.1769464313983917e-002</leafValues></_>
        <_>
          <internalNodes>
            0 -1 268 3.0638802796602249e-002</internalNodes>
          <leafValues>
            -1.4354982972145081e-001 1.9582280516624451e-001</leafValues></_>
        <_>
          <internalNodes>
            0 -1 322 5.3615901619195938e-002</internalNodes>
          <leafValues>
            -6.1747554689645767e-002 3.2623985409736633e-001</leafValues></_>
        <_>
          <internalNodes>
            0 -1 8 9.7267413511872292e-003</internalNodes>
          <leafValues>
            2.5747337937355042e-001 -8.1944756209850311e-002</leafValues></_>
        <_>
          <internalNodes>
            0 -1 18 1.0315997526049614e-002</internalNodes>
          <leafValues>
            -3.2495003938674927e-001 6.9890551269054413e-002</leafValues></_>
        <_>
          <internalNodes>
            0 -1 122 2.3512227460741997e-002</internalNodes>
          <leafValues>
            -1.5276876091957092e-001 1.5262880921363831e-001</leafValues></_>
        <_>
          <internalNodes>
            0 -1 21 2.5733564049005508e-002</internalNodes>
          <leafValues>
            -1.0300654917955399e-001 1.9156675040721893e-001</leafValues></_>
        <_>
          <internalNodes>
            0 -1 79 5.7711239904165268e-002</internalNodes>
          <leafValues>
            -5.6102849543094635e-002 3.3590519428253174e-001</leafValues></_>
        <_>
          <internalNodes>
            0 -1 65 1.0879898443818092e-002</internalNodes>
          <leafValues>
            -1.8506883084774017e-001 1.0979147255420685e-001</leafValues></_>
        <_>
          <internalNodes>
            0 -1 31 5.9407684952020645e-002</internalNodes>
          <leafValues>
            4.7435417771339417e-002 -3.5506218671798706e-001</leafValues></_>
        <_>
          <internalNodes>
            0 -1 242 8.9122522622346878e-003</internalNodes>
          <leafValues>
            2.1667926013469696e-001 -8.3513177931308746e-002</leafValues></_>
        <_>
          <internalNodes>
            0 -1 123 1.2774366140365601e-001</internalNodes>
          <leafValues>
            2.8998967260122299e-002 -6.9680178165435791e-001</leafValues></_>
        <_>
          <internalNodes>
            0 -1 310 8.4186583757400513e-002</internalNodes>
          <leafValues>
            2.6752637699246407e-002 -5.1027423143386841e-001</leafValues></_>
        <_>
          <internalNodes>
            0 -1 107 3.6305665969848633e-002</internalNodes>
          <leafValues>
            9.6184089779853821e-002 -1.9165755808353424e-001</leafValues></_>
        <_>
          <internalNodes>
            0 -1 261 4.1662540286779404e-002</internalNodes>
          <leafValues>
            6.4303182065486908e-002 -2.6324608922004700e-001</leafValues></_>
        <_>
          <internalNodes>
            0 -1 153 2.6390333659946918e-003</internalNodes>
          <leafValues>
            -4.3313524127006531e-001 4.8304852098226547e-002</leafValues></_>
        <_>
          <internalNodes>
            0 -1 323 2.8578400611877441e-002</internalNodes>
          <leafValues>
            1.1939613521099091e-001 -1.2024942040443420e-001</leafValues></_>
        <_>
          <internalNodes>
            0 -1 207 1.6730897128582001e-002</internalNodes>
          <leafValues>
            -1.9301371276378632e-001 1.0045483708381653e-001</leafValues></_>
        <_>
          <internalNodes>
            0 -1 96 1.2535513378679752e-002</internalNodes>
          <leafValues>
            -1.6203390061855316e-001 1.0112901777029037e-001</leafValues></_>
        <_>
          <internalNodes>
            0 -1 298 5.6558329612016678e-002</internalNodes>
          <leafValues>
            3.7440679967403412e-002 -3.9522433280944824e-001</leafValues></_>
        <_>
          <internalNodes>
            0 -1 37 2.4062136188149452e-002</internalNodes>
          <leafValues>
            -1.3607166707515717e-001 1.1331327259540558e-001</leafValues></_>
        <_>
          <internalNodes>
            0 -1 305 2.6578377000987530e-003</internalNodes>
          <leafValues>
            -6.6173601150512695e-001 1.8381612375378609e-002</leafValues></_>
        <_>
          <internalNodes>
            0 -1 233 2.5914102792739868e-002</internalNodes>
          <leafValues>
            1.1074886471033096e-001 -1.3216979801654816e-001</leafValues></_>
        <_>
          <internalNodes>
            0 -1 55 2.7516987174749374e-003</internalNodes>
          <leafValues>
            -4.4306418299674988e-001 3.0514575541019440e-002</leafValues></_>
        <_>
          <internalNodes>
            0 -1 231 3.5529907792806625e-002</internalNodes>
          <leafValues>
            -6.7706778645515442e-002 2.0884072780609131e-001</leafValues></_>
        <_>
          <internalNodes>
            0 -1 159 3.9064828306436539e-002</internalNodes>
          <leafValues>
            7.3497585952281952e-002 -1.9247817993164063e-001</leafValues></_>
        <_>
          <internalNodes>
            0 -1 303 2.1028392016887665e-002</internalNodes>
          <leafValues>
            -1.2907654047012329e-001 1.3989444077014923e-001</leafValues></_>
        <_>
          <internalNodes>
            0 -1 86 3.4707388840615749e-004</internalNodes>
          <leafValues>
            -6.9294577836990356e-001 2.0945446565747261e-002</leafValues></_>
        <_>
          <internalNodes>
            0 -1 211 1.2391563504934311e-002</internalNodes>
          <leafValues>
            1.3719210028648376e-001 -9.2091590166091919e-002</leafValues></_>
        <_>
          <internalNodes>
            0 -1 93 2.8568759560585022e-002</internalNodes>
          <leafValues>
            -8.3992511034011841e-002 1.8101666867733002e-001</leafValues></_>
        <_>
          <internalNodes>
            0 -1 320 2.8110359562560916e-004</internalNodes>
          <leafValues>
            -5.8173501491546631e-001 2.5028837844729424e-002</leafValues></_>
        <_>
          <internalNodes>
            0 -1 58 4.9640135839581490e-003</internalNodes>
          <leafValues>
            2.8030782938003540e-001 -4.8346497118473053e-002</leafValues></_>
        <_>
          <internalNodes>
            0 -1 46 1.7835514619946480e-002</internalNodes>
          <leafValues>
            8.0882064998149872e-002 -1.6744571924209595e-001</leafValues></_>
        <_>
          <internalNodes>
            0 -1 44 1.1585918068885803e-001</internalNodes>
          <leafValues>
            3.4162335097789764e-002 -4.3812093138694763e-001</leafValues></_>
        <_>
          <internalNodes>
            0 -1 204 1.2921175360679626e-001</internalNodes>
          <leafValues>
            1.1283105239272118e-002 -8.9882087707519531e-001</leafValues></_>
        <_>
          <internalNodes>
            0 -1 148 9.5630124211311340e-002</internalNodes>
          <leafValues>
            1.8500300124287605e-002 -5.3490495681762695e-001</leafValues></_>
        <_>
          <internalNodes>
            0 -1 166 3.4016050398349762e-002</internalNodes>
          <leafValues>
            6.5354794263839722e-002 -1.7561605572700500e-001</leafValues></_>
        <_>
          <internalNodes>
            0 -1 260 9.4495555385947227e-003</internalNodes>
          <leafValues>
            1.6838645935058594e-001 -8.7133012712001801e-002</leafValues></_>
        <_>
          <internalNodes>
            0 -1 205 2.5073271244764328e-002</internalNodes>
          <leafValues>
            -9.7579337656497955e-002 1.1425183713436127e-001</leafValues></_>
        <_>
          <internalNodes>
            0 -1 303 1.3544696569442749e-001</internalNodes>
          <leafValues>
            1.9023308530449867e-002 -6.2831705808639526e-001</leafValues></_>
        <_>
          <internalNodes>
            0 -1 107 1.1972334235906601e-002</internalNodes>
          <leafValues>
            1.8604217469692230e-001 -6.3755132257938385e-002</leafValues></_>
        <_>
          <internalNodes>
            0 -1 301 3.2332981936633587e-003</internalNodes>
          <leafValues>
            3.7988150119781494e-001 -3.1173393130302429e-002</leafValues></_>
        <_>
          <internalNodes>
            0 -1 269 1.0660871863365173e-001</internalNodes>
          <leafValues>
            3.0602978542447090e-002 -4.3748524785041809e-001</leafValues></_>
        <_>
          <internalNodes>
            0 -1 197 1.2782257795333862e-001</internalNodes>
          <leafValues>
            -3.0970396474003792e-002 4.4784718751907349e-001</leafValues></_>
        <_>
          <internalNodes>
            0 -1 181 4.7749653458595276e-002</internalNodes>
          <leafValues>
            4.3638896197080612e-002 -2.7323937416076660e-001</leafValues></_>
        <_>
          <internalNodes>
            0 -1 203 7.8885918483138084e-003</internalNodes>
          <leafValues>
            -1.7883992195129395e-001 5.9913702309131622e-002</leafValues></_>
        <_>
          <internalNodes>
            0 -1 150 5.5937967263162136e-003</internalNodes>
          <leafValues>
            1.7188578844070435e-001 -6.6844314336776733e-002</leafValues></_>
        <_>
          <internalNodes>
            0 -1 39 2.7000043541193008e-002</internalNodes>
          <leafValues>
            -8.9282698929309845e-002 1.3061773777008057e-001</leafValues></_>
        <_>
          <internalNodes>
            0 -1 103 3.2114699482917786e-002</internalNodes>
          <leafValues>
            7.4489139020442963e-002 -1.5351314842700958e-001</leafValues></_>
        <_>
          <internalNodes>
            0 -1 323 1.4377930760383606e-001</internalNodes>
          <leafValues>
            2.1451991051435471e-002 -4.9728995561599731e-001</leafValues></_>
        <_>
          <internalNodes>
            0 -1 276 1.0944435000419617e-001</internalNodes>
          <leafValues>
            9.8537215963006020e-003 -8.6701840162277222e-001</leafValues></_>
        <_>
          <internalNodes>
            0 -1 105 1.9092466682195663e-002</internalNodes>
          <leafValues>
            -1.0384571552276611e-001 1.2110248208045959e-001</leafValues></_>
        <_>
          <internalNodes>
            0 -1 116 1.5916517376899719e-001</internalNodes>
          <leafValues>
            -1.7872823402285576e-002 5.6614571809768677e-001</leafValues></_>
        <_>
          <internalNodes>
            0 -1 260 7.4021853506565094e-002</internalNodes>
          <leafValues>
            3.3201359212398529e-002 -4.3299302458763123e-001</leafValues></_>
        <_>
          <internalNodes>
            0 -1 196 2.6752270758152008e-002</internalNodes>
          <leafValues>
            -1.0222866386175156e-001 1.0709828138351440e-001</leafValues></_>
        <_>
          <internalNodes>
            0 -1 144 7.3373084887862206e-003</internalNodes>
          <leafValues>
            -2.1158467233181000e-001 4.9440711736679077e-002</leafValues></_>
        <_>
          <internalNodes>
            0 -1 152 1.6647422686219215e-002</internalNodes>
          <leafValues>
            1.2757949531078339e-001 -9.0807795524597168e-002</leafValues></_>
        <_>
          <internalNodes>
            0 -1 224 1.5358337759971619e-001</internalNodes>
          <leafValues>
            -1.5739366412162781e-002 6.3739007711410522e-001</leafValues></_>
        <_>
          <internalNodes>
            0 -1 173 5.0190441310405731e-002</internalNodes>
          <leafValues>
            -3.2477535307407379e-002 2.8313738107681274e-001</leafValues></_>
        <_>
          <internalNodes>
            0 -1 90 4.4515766203403473e-002</internalNodes>
          <leafValues>
            -6.4850851893424988e-002 1.6312803328037262e-001</leafValues></_>
        <_>
          <internalNodes>
            0 -1 54 3.8099456578493118e-002</internalNodes>
          <leafValues>
            7.4936248362064362e-002 -1.5311960875988007e-001</leafValues></_>
        <_>
          <internalNodes>
            0 -1 100 8.5008479654788971e-002</internalNodes>
          <leafValues>
            2.1018574014306068e-002 -4.9756649136543274e-001</leafValues></_>
        <_>
          <internalNodes>
            0 -1 123 1.4837816357612610e-002</internalNodes>
          <leafValues>
            -1.2165618687868118e-001 7.9532682895660400e-002</leafValues></_>
        <_>
          <internalNodes>
            0 -1 126 3.1240172684192657e-002</internalNodes>
          <leafValues>
            -8.5738070309162140e-002 1.3831645250320435e-001</leafValues></_>
        <_>
          <internalNodes>
            0 -1 27 1.0761430859565735e-001</internalNodes>
          <leafValues>
            1.1069329455494881e-002 -8.3902305364608765e-001</leafValues></_>
        <_>
          <internalNodes>
            0 -1 115 8.1718415021896362e-003</internalNodes>
          <leafValues>
            1.3285036385059357e-001 -7.2681702673435211e-002</leafValues></_>
        <_>
          <internalNodes>
            0 -1 217 3.1028140801936388e-004</internalNodes>
          <leafValues>
            -5.7178008556365967e-001 1.7474459484219551e-002</leafValues></_>
        <_>
          <internalNodes>
            0 -1 169 1.2535208370536566e-003</internalNodes>
          <leafValues>
            -8.4509658813476563e-001 8.7207211181521416e-003</leafValues></_>
        <_>
          <internalNodes>
            0 -1 9 3.0734043568372726e-002</internalNodes>
          <leafValues>
            4.7927077859640121e-002 -1.8930579721927643e-001</leafValues></_>
        <_>
          <internalNodes>
            0 -1 17 6.6010337322950363e-003</internalNodes>
          <leafValues>
            -1.9005797803401947e-001 6.6145636141300201e-002</leafValues></_>
        <_>
          <internalNodes>
            0 -1 241 3.2032006420195103e-003</internalNodes>
          <leafValues>
            2.6721331477165222e-001 -3.5677526146173477e-002</leafValues></_>
        <_>
          <internalNodes>
            0 -1 196 3.8774011190980673e-003</internalNodes>
          <leafValues>
            -3.9493542909622192e-001 2.6498775929212570e-002</leafValues></_>
        <_>
          <internalNodes>
            0 -1 323 1.4453886076807976e-002</internalNodes>
          <leafValues>
            1.6777741909027100e-001 -6.3530325889587402e-002</leafValues></_>
        <_>
          <internalNodes>
            0 -1 321 1.4682929962873459e-002</internalNodes>
          <leafValues>
            -1.1417917162179947e-001 9.9710375070571899e-002</leafValues></_>
        <_>
          <internalNodes>
            0 -1 69 5.6779772043228149e-002</internalNodes>
          <leafValues>
            2.9849886894226074e-002 -3.9229115843772888e-001</leafValues></_>
        <_>
          <internalNodes>
            0 -1 225 9.9427625536918640e-002</internalNodes>
          <leafValues>
            9.5075601711869240e-003 -8.0365854501724243e-001</leafValues></_>
        <_>
          <internalNodes>
            0 -1 148 3.3993661403656006e-002</internalNodes>
          <leafValues>
            6.7621938884258270e-002 -1.3545794785022736e-001</leafValues></_>
        <_>
          <internalNodes>
            0 -1 224 5.5382691323757172e-002</internalNodes>
          <leafValues>
            3.7507738918066025e-002 -2.6684236526489258e-001</leafValues></_>
        <_>
          <internalNodes>
            0 -1 146 4.6920762397348881e-003</internalNodes>
          <leafValues>
            -2.6841154694557190e-001 3.5221539437770844e-002</leafValues></_>
        <_>
          <internalNodes>
            0 -1 175 7.1078509092330933e-002</internalNodes>
          <leafValues>
            2.4921832606196404e-002 -3.4511667490005493e-001</leafValues></_>
        <_>
          <internalNodes>
            0 -1 109 8.8597081601619720e-002</internalNodes>
          <leafValues>
            2.4947738274931908e-002 -3.5356077551841736e-001</leafValues></_>
        <_>
          <internalNodes>
            0 -1 2 5.6428775191307068e-002</internalNodes>
          <leafValues>
            -3.9611760526895523e-002 2.5327518582344055e-001</leafValues></_>
        <_>
          <internalNodes>
            0 -1 307 1.1442909017205238e-003</internalNodes>
          <leafValues>
            -5.0650352239608765e-001 1.8322262912988663e-002</leafValues></_>
        <_>
          <internalNodes>
            0 -1 168 2.8298370540142059e-002</internalNodes>
          <leafValues>
            -7.3706604540348053e-002 1.3069143891334534e-001</leafValues></_>
        <_>
          <internalNodes>
            0 -1 265 1.5176348388195038e-001</internalNodes>
          <leafValues>
            -1.9600899890065193e-002 4.5905989408493042e-001</leafValues></_>
        <_>
          <internalNodes>
            0 -1 112 1.4777651429176331e-001</internalNodes>
          <leafValues>
            1.5761008486151695e-002 -6.4711129665374756e-001</leafValues></_>
        <_>
          <internalNodes>
            0 -1 134 1.0574358701705933e-001</internalNodes>
          <leafValues>
            -2.7110677212476730e-002 3.1622341275215149e-001</leafValues></_>
        <_>
          <internalNodes>
            0 -1 208 2.9934987425804138e-002</internalNodes>
          <leafValues>
            -6.6698782145977020e-002 1.2973438203334808e-001</leafValues></_>
        <_>
          <internalNodes>
            0 -1 306 4.2185992002487183e-002</internalNodes>
          <leafValues>
            5.2217159420251846e-002 -1.7936396598815918e-001</leafValues></_>
        <_>
          <internalNodes>
            0 -1 234 4.8252984881401062e-002</internalNodes>
          <leafValues>
            -4.3829515576362610e-002 2.2131854295730591e-001</leafValues></_>
        <_>
          <internalNodes>
            0 -1 35 9.3540288507938385e-003</internalNodes>
          <leafValues>
            1.5244285762310028e-001 -5.6806009262800217e-002</leafValues></_>
        <_>
          <internalNodes>
            0 -1 202 5.6923143565654755e-003</internalNodes>
          <leafValues>
            2.2980391979217529e-001 -3.6060240119695663e-002</leafValues></_>
        <_>
          <internalNodes>
            0 -1 59 8.8949706405401230e-003</internalNodes>
          <leafValues>
            -1.5183408558368683e-001 6.0438431799411774e-002</leafValues></_>
        <_>
          <internalNodes>
            0 -1 255 5.4965575691312551e-004</internalNodes>
          <leafValues>
            -5.2191376686096191e-001 1.7227068543434143e-002</leafValues></_>
        <_>
          <internalNodes>
            0 -1 161 8.4366567898541689e-004</internalNodes>
          <leafValues>
            -7.0942121744155884e-001 9.8522668704390526e-003</leafValues></_>
        <_>
          <internalNodes>
            0 -1 8 6.3964482396841049e-003</internalNodes>
          <leafValues>
            2.1109521389007568e-001 -4.4356003403663635e-002</leafValues></_>
        <_>
          <internalNodes>
            0 -1 292 1.0638855397701263e-002</internalNodes>
          <leafValues>
            1.4651498198509216e-001 -5.4709400981664658e-002</leafValues></_>
        <_>
          <internalNodes>
            0 -1 275 9.7177363932132721e-003</internalNodes>
          <leafValues>
            -1.5927897393703461e-001 6.9895975291728973e-002</leafValues></_>
        <_>
          <internalNodes>
            0 -1 264 7.3869161307811737e-002</internalNodes>
          <leafValues>
            -2.5030653923749924e-002 3.5233822464942932e-001</leafValues></_>
        <_>
          <internalNodes>
            0 -1 0 1.4617783948779106e-002</internalNodes>
          <leafValues>
            -1.2740357220172882e-001 7.4539542198181152e-002</leafValues></_>
        <_>
          <internalNodes>
            0 -1 142 9.7963243722915649e-002</internalNodes>
          <leafValues>
            -2.1316336467862129e-002 4.3821001052856445e-001</leafValues></_>
        <_>
          <internalNodes>
            0 -1 12 2.1640401333570480e-002</internalNodes>
          <leafValues>
            -9.6017666161060333e-002 9.5834963023662567e-002</leafValues></_>
        <_>
          <internalNodes>
            0 -1 98 2.2801950573921204e-002</internalNodes>
          <leafValues>
            1.1997541785240173e-001 -6.8522006273269653e-002</leafValues></_>
        <_>
          <internalNodes>
            0 -1 94 1.1029611527919769e-001</internalNodes>
          <leafValues>
            2.1271783858537674e-002 -4.6313422918319702e-001</leafValues></_>
        <_>
          <internalNodes>
            0 -1 183 9.1764792799949646e-002</internalNodes>
          <leafValues>
            8.5733262822031975e-003 -7.9683023691177368e-001</leafValues></_>
        <_>
          <internalNodes>
            0 -1 28 1.2140546739101410e-001</internalNodes>
          <leafValues>
            7.3004593141376972e-003 -8.4243458509445190e-001</leafValues></_>
        <_>
          <internalNodes>
            0 -1 91 1.6182383522391319e-002</internalNodes>
          <leafValues>
            -9.6265532076358795e-002 7.9498082399368286e-002</leafValues></_>
        <_>
          <internalNodes>
            0 -1 123 5.6983105838298798e-002</internalNodes>
          <leafValues>
            -3.6472383886575699e-002 2.1380203962326050e-001</leafValues></_>
        <_>
          <internalNodes>
            0 -1 51 9.5309987664222717e-002</internalNodes>
          <leafValues>
            2.0971214398741722e-002 -5.0908327102661133e-001</leafValues></_>
        <_>
          <internalNodes>
            0 -1 322 5.8800692204385996e-004</internalNodes>
          <leafValues>
            -5.7527041435241699e-001 1.1752469465136528e-002</leafValues></_>
        <_>
          <internalNodes>
            0 -1 215 6.1824535951018333e-003</internalNodes>
          <leafValues>
            2.7420777082443237e-001 -3.1507235020399094e-002</leafValues></_>
        <_>
          <internalNodes>
            0 -1 315 8.5720621049404144e-002</internalNodes>
          <leafValues>
            2.5216193869709969e-002 -3.0390241742134094e-001</leafValues></_></weakClassifiers></_>
    <!-- stage 6 -->
    <_>
      <maxWeakCount>287</maxWeakCount>
      <stageThreshold>-2.0206201076507568e+000</stageThreshold>
      <weakClassifiers>
        <_>
          <internalNodes>
            0 -1 224 6.4683919772505760e-003</internalNodes>
          <leafValues>
            -7.6972418464720249e-003 -6.7282146215438843e-001</leafValues></_>
        <_>
          <internalNodes>
            0 -1 159 4.7615565359592438e-002</internalNodes>
          <leafValues>
            -2.7572843432426453e-001 3.7339630722999573e-001</leafValues></_>
        <_>
          <internalNodes>
            0 -1 110 4.3849807232618332e-002</internalNodes>
          <leafValues>
            -1.8214784562587738e-001 3.9715340733528137e-001</leafValues></_>
        <_>
          <internalNodes>
            0 -1 53 1.7913928255438805e-002</internalNodes>
          <leafValues>
            1.9006755948066711e-001 -2.8112083673477173e-001</leafValues></_>
        <_>
          <internalNodes>
            0 -1 160 3.5176265984773636e-002</internalNodes>
          <leafValues>
            -1.5251272916793823e-001 2.3375439643859863e-001</leafValues></_>
        <_>
          <internalNodes>
            0 -1 168 1.3941513374447823e-002</internalNodes>
          <leafValues>
            -2.3510757088661194e-001 1.8434940278530121e-001</leafValues></_>
        <_>
          <internalNodes>
            0 -1 314 4.6707868576049805e-002</internalNodes>
          <leafValues>
            7.2282023727893829e-002 -3.5979419946670532e-001</leafValues></_>
        <_>
          <internalNodes>
            0 -1 307 1.9617961719632149e-002</internalNodes>
          <leafValues>
            -1.4772422611713409e-001 1.9255141913890839e-001</leafValues></_>
        <_>
          <internalNodes>
            0 -1 37 1.7502821981906891e-002</internalNodes>
          <leafValues>
            -2.4160003662109375e-001 1.1144497245550156e-001</leafValues></_>
        <_>
          <internalNodes>
            0 -1 284 2.1629782393574715e-002</internalNodes>
          <leafValues>
            -1.5071251988410950e-001 1.5762931108474731e-001</leafValues></_>
        <_>
          <internalNodes>
            0 -1 114 1.0892752557992935e-002</internalNodes>
          <leafValues>
            1.4692829549312592e-001 -1.5568412840366364e-001</leafValues></_>
        <_>
          <internalNodes>
            0 -1 169 2.2557463496923447e-002</internalNodes>
          <leafValues>
            -1.5575556457042694e-001 1.2792521715164185e-001</leafValues></_>
        <_>
          <internalNodes>
            0 -1 221 2.1099755540490150e-002</internalNodes>
          <leafValues>
            -1.5139776468276978e-001 1.4320723712444305e-001</leafValues></_>
        <_>
          <internalNodes>
            0 -1 171 3.8455493748188019e-002</internalNodes>
          <leafValues>
            -1.0286373645067215e-001 1.6703993082046509e-001</leafValues></_>
        <_>
          <internalNodes>
            0 -1 153 3.0317841097712517e-002</internalNodes>
          <leafValues>
            6.6922210156917572e-002 -2.3496368527412415e-001</leafValues></_>
        <_>
          <internalNodes>
            0 -1 113 2.3643750697374344e-002</internalNodes>
          <leafValues>
            8.6318753659725189e-002 -2.0274262130260468e-001</leafValues></_>
        <_>
          <internalNodes>
            0 -1 116 1.0465925559401512e-002</internalNodes>
          <leafValues>
            1.8094475567340851e-001 -8.8025830686092377e-002</leafValues></_>
        <_>
          <internalNodes>
            0 -1 10 3.4235432744026184e-002</internalNodes>
          <leafValues>
            4.6780638396739960e-002 -2.8733897209167480e-001</leafValues></_>
        <_>
          <internalNodes>
            0 -1 109 1.1495277285575867e-002</internalNodes>
          <leafValues>
            -2.0534089207649231e-001 8.9555032551288605e-002</leafValues></_>
        <_>
          <internalNodes>
            0 -1 65 8.4967464208602905e-003</internalNodes>
          <leafValues>
            -1.9242872297763824e-001 6.9507136940956116e-002</leafValues></_>
        <_>
          <internalNodes>
            0 -1 184 2.4308826774358749e-002</internalNodes>
          <leafValues>
            1.0067556053400040e-001 -1.4431470632553101e-001</leafValues></_>
        <_>
          <internalNodes>
            0 -1 278 1.4101378619670868e-002</internalNodes>
          <leafValues>
            1.9528901576995850e-001 -9.8218552768230438e-002</leafValues></_>
        <_>
          <internalNodes>
            0 -1 224 6.5129776485264301e-003</internalNodes>
          <leafValues>
            -1.7887453734874725e-001 7.2018139064311981e-002</leafValues></_>
        <_>
          <internalNodes>
            0 -1 9 1.5794560313224792e-002</internalNodes>
          <leafValues>
            9.8410241305828094e-002 -1.4862258732318878e-001</leafValues></_>
        <_>
          <internalNodes>
            0 -1 158 9.6724182367324829e-003</internalNodes>
          <leafValues>
            -2.1980431675910950e-001 6.5039917826652527e-002</leafValues></_>
        <_>
          <internalNodes>
            0 -1 92 3.3402960747480392e-002</internalNodes>
          <leafValues>
            -5.7289090007543564e-002 2.1740041673183441e-001</leafValues></_>
        <_>
          <internalNodes>
            0 -1 121 1.5464910864830017e-001</internalNodes>
          <leafValues>
            2.5617958977818489e-002 -5.3086864948272705e-001</leafValues></_>
        <_>
          <internalNodes>
            0 -1 304 7.7814057469367981e-002</internalNodes>
          <leafValues>
            -4.5299105346202850e-002 3.0618208646774292e-001</leafValues></_>
        <_>
          <internalNodes>
            0 -1 233 7.1290202438831329e-002</internalNodes>
          <leafValues>
            4.4851478189229965e-002 -3.0417734384536743e-001</leafValues></_>
        <_>
          <internalNodes>
            0 -1 252 4.1757139842957258e-004</internalNodes>
          <leafValues>
            -5.4894053936004639e-001 2.0783852785825729e-002</leafValues></_>
        <_>
          <internalNodes>
            0 -1 103 8.4314927458763123e-002</internalNodes>
          <leafValues>
            1.9776791334152222e-002 -4.8408180475234985e-001</leafValues></_>
        <_>
          <internalNodes>
            0 -1 239 1.2331148982048035e-001</internalNodes>
          <leafValues>
            1.0501502081751823e-002 -8.0687528848648071e-001</leafValues></_>
        <_>
          <internalNodes>
            0 -1 320 8.1482484936714172e-002</internalNodes>
          <leafValues>
            -2.9671112075448036e-002 4.5131590962409973e-001</leafValues></_>
        <_>
          <internalNodes>
            0 -1 252 1.3800576329231262e-002</internalNodes>
          <leafValues>
            9.2452637851238251e-002 -1.2054534256458282e-001</leafValues></_>
        <_>
          <internalNodes>
            0 -1 144 7.3898479342460632e-002</internalNodes>
          <leafValues>
            -3.9409536868333817e-002 3.1175684928894043e-001</leafValues></_>
        <_>
          <internalNodes>
            0 -1 171 3.1312163919210434e-003</internalNodes>
          <leafValues>
            -5.1121747493743896e-001 2.4283031001687050e-002</leafValues></_>
        <_>
          <internalNodes>
            0 -1 323 2.9072172939777374e-002</internalNodes>
          <leafValues>
            1.1043960601091385e-001 -1.0875766724348068e-001</leafValues></_>
        <_>
          <internalNodes>
            0 -1 322 4.7611773014068604e-002</internalNodes>
          <leafValues>
            -6.3311994075775146e-002 2.4295917153358459e-001</leafValues></_>
        <_>
          <internalNodes>
            0 -1 39 1.9148673862218857e-002</internalNodes>
          <leafValues>
            -1.2235087156295776e-001 9.6803739666938782e-002</leafValues></_>
        <_>
          <internalNodes>
            0 -1 25 3.9792656898498535e-002</internalNodes>
          <leafValues>
            -6.2631271779537201e-002 1.8717683851718903e-001</leafValues></_>
        <_>
          <internalNodes>
            0 -1 244 7.8092642128467560e-002</internalNodes>
          <leafValues>
            2.2251294925808907e-002 -4.9986746907234192e-001</leafValues></_>
        <_>
          <internalNodes>
            0 -1 229 4.8370091244578362e-003</internalNodes>
          <leafValues>
            2.7386951446533203e-001 -3.9228949695825577e-002</leafValues></_>
        <_>
          <internalNodes>
            0 -1 311 1.2253872118890285e-002</internalNodes>
          <leafValues>
            -1.3337823748588562e-001 8.1819124519824982e-002</leafValues></_>
        <_>
          <internalNodes>
            0 -1 211 3.9299860596656799e-002</internalNodes>
          <leafValues>
            6.1042372137308121e-002 -1.9213269650936127e-001</leafValues></_>
        <_>
          <internalNodes>
            0 -1 184 8.1875421106815338e-002</internalNodes>
          <leafValues>
            1.9526220858097076e-002 -4.5780077576637268e-001</leafValues></_>
        <_>
          <internalNodes>
            0 -1 152 1.6575489193201065e-002</internalNodes>
          <leafValues>
            1.2039013206958771e-001 -8.4933906793594360e-002</leafValues></_>
        <_>
          <internalNodes>
            0 -1 144 3.0856211669743061e-003</internalNodes>
          <leafValues>
            -3.7227556109428406e-001 2.6775717735290527e-002</leafValues></_>
        <_>
          <internalNodes>
            0 -1 233 8.5849389433860779e-003</internalNodes>
          <leafValues>
            1.7460481822490692e-001 -5.7467505335807800e-002</leafValues></_>
        <_>
          <internalNodes>
            0 -1 232 2.4659261107444763e-002</internalNodes>
          <leafValues>
            -9.3201808631420135e-002 1.2476132065057755e-001</leafValues></_>
        <_>
          <internalNodes>
            0 -1 73 1.0066545009613037e-001</internalNodes>
          <leafValues>
            2.1253744140267372e-002 -4.5899614691734314e-001</leafValues></_>
        <_>
          <internalNodes>
            0 -1 107 1.0774211958050728e-002</internalNodes>
          <leafValues>
            1.7680306732654572e-001 -5.3068500012159348e-002</leafValues></_>
        <_>
          <internalNodes>
            0 -1 128 1.8310223240405321e-003</internalNodes>
          <leafValues>
            -3.9640137553215027e-001 2.4637117981910706e-002</leafValues></_>
        <_>
          <internalNodes>
            0 -1 111 2.9064802452921867e-002</internalNodes>
          <leafValues>
            -8.7880939245223999e-002 1.0267990827560425e-001</leafValues></_>
        <_>
          <internalNodes>
            0 -1 256 9.1672856360673904e-003</internalNodes>
          <leafValues>
            1.9539077579975128e-001 -5.1711339503526688e-002</leafValues></_>
        <_>
          <internalNodes>
            0 -1 159 5.1697595044970512e-003</internalNodes>
          <leafValues>
            -2.6688560843467712e-001 3.4046631306409836e-002</leafValues></_>
        <_>
          <internalNodes>
            0 -1 209 3.3046357333660126e-002</internalNodes>
          <leafValues>
            -5.1340177655220032e-002 1.5824118256568909e-001</leafValues></_>
        <_>
          <internalNodes>
            0 -1 125 1.7207778990268707e-002</internalNodes>
          <leafValues>
            1.0056032985448837e-001 -8.0906935036182404e-002</leafValues></_>
        <_>
          <internalNodes>
            0 -1 205 2.3145426064729691e-002</internalNodes>
          <leafValues>
            -9.9886618554592133e-002 9.2715501785278320e-002</leafValues></_>
        <_>
          <internalNodes>
            0 -1 143 6.8841636180877686e-002</internalNodes>
          <leafValues>
            -4.7053955495357513e-002 1.7143134772777557e-001</leafValues></_>
        <_>
          <internalNodes>
            0 -1 227 5.9521973133087158e-002</internalNodes>
          <leafValues>
            -2.0665815100073814e-002 3.9911043643951416e-001</leafValues></_>
        <_>
          <internalNodes>
            0 -1 224 1.6227576136589050e-001</internalNodes>
          <leafValues>
            -1.1117435060441494e-002 6.2910228967666626e-001</leafValues></_>
        <_>
          <internalNodes>
            0 -1 266 1.8191728740930557e-002</internalNodes>
          <leafValues>
            -1.0307963937520981e-001 7.8782208263874054e-002</leafValues></_>
        <_>
          <internalNodes>
            0 -1 98 9.4162076711654663e-003</internalNodes>
          <leafValues>
            2.3018606007099152e-001 -3.1795423477888107e-002</leafValues></_>
        <_>
          <internalNodes>
            0 -1 202 3.6084130406379700e-002</internalNodes>
          <leafValues>
            6.0045454651117325e-002 -1.6121205687522888e-001</leafValues></_>
        <_>
          <internalNodes>
            0 -1 106 6.5377026796340942e-002</internalNodes>
          <leafValues>
            2.1097315475344658e-002 -3.6445665359497070e-001</leafValues></_>
        <_>
          <internalNodes>
            0 -1 253 1.8585128709673882e-002</internalNodes>
          <leafValues>
            5.7686772197484970e-002 -1.4194913208484650e-001</leafValues></_>
        <_>
          <internalNodes>
            0 -1 145 4.1042320430278778e-002</internalNodes>
          <leafValues>
            -5.9751041233539581e-002 1.6544802486896515e-001</leafValues></_>
        <_>
          <internalNodes>
            0 -1 172 3.1574307940900326e-003</internalNodes>
          <leafValues>
            -3.7181821465492249e-001 2.0914949476718903e-002</leafValues></_>
        <_>
          <internalNodes>
            0 -1 321 2.5772981345653534e-002</internalNodes>
          <leafValues>
            -6.2147080898284912e-002 1.2926541268825531e-001</leafValues></_>
        <_>
          <internalNodes>
            0 -1 265 1.5869641304016113e-001</internalNodes>
          <leafValues>
            -1.8686907365918159e-002 4.3950203061103821e-001</leafValues></_>
        <_>
          <internalNodes>
            0 -1 118 1.0805872443597764e-004</internalNodes>
          <leafValues>
            -4.8340797424316406e-001 1.6767356544733047e-002</leafValues></_>
        <_>
          <internalNodes>
            0 -1 231 3.7417531013488770e-002</internalNodes>
          <leafValues>
            -4.9947164952754974e-002 1.5048848092556000e-001</leafValues></_>
        <_>
          <internalNodes>
            0 -1 234 4.4580914080142975e-002</internalNodes>
          <leafValues>
            -4.2184669524431229e-002 2.0541165769100189e-001</leafValues></_>
        <_>
          <internalNodes>
            0 -1 53 2.9646448791027069e-002</internalNodes>
          <leafValues>
            5.2047312259674072e-002 -1.6075165569782257e-001</leafValues></_>
        <_>
          <internalNodes>
            0 -1 168 2.5408649817109108e-003</internalNodes>
          <leafValues>
            -3.8259601593017578e-001 2.0601136609911919e-002</leafValues></_>
        <_>
          <internalNodes>
            0 -1 8 2.1704008802771568e-002</internalNodes>
          <leafValues>
            9.1041766107082367e-002 -8.5080362856388092e-002</leafValues></_>
        <_>
          <internalNodes>
            0 -1 145 2.9203095473349094e-003</internalNodes>
          <leafValues>
            -3.6677393317222595e-001 2.1578989923000336e-002</leafValues></_>
        <_>
          <internalNodes>
            0 -1 181 4.2917784303426743e-002</internalNodes>
          <leafValues>
            3.8758825510740280e-002 -2.2453501820564270e-001</leafValues></_>
        <_>
          <internalNodes>
            0 -1 90 5.4525665938854218e-002</internalNodes>
          <leafValues>
            -4.6733759343624115e-002 1.7781566083431244e-001</leafValues></_>
        <_>
          <internalNodes>
            0 -1 98 4.4332530349493027e-002</internalNodes>
          <leafValues>
            8.1036210060119629e-002 -1.1527399718761444e-001</leafValues></_>
        <_>
          <internalNodes>
            0 -1 211 1.2139059603214264e-002</internalNodes>
          <leafValues>
            1.2013387680053711e-001 -7.1064308285713196e-002</leafValues></_>
        <_>
          <internalNodes>
            0 -1 183 7.7231898903846741e-002</internalNodes>
          <leafValues>
            1.5632633119821548e-002 -5.4310899972915649e-001</leafValues></_>
        <_>
          <internalNodes>
            0 -1 264 2.2016402333974838e-002</internalNodes>
          <leafValues>
            -8.3244405686855316e-002 1.0276412963867187e-001</leafValues></_>
        <_>
          <internalNodes>
            0 -1 4 4.5317551121115685e-003</internalNodes>
          <leafValues>
            2.4842676520347595e-001 -3.3047661185264587e-002</leafValues></_>
        <_>
          <internalNodes>
            0 -1 38 3.0518332496285439e-003</internalNodes>
          <leafValues>
            -3.4105950593948364e-001 2.4851525202393532e-002</leafValues></_>
        <_>
          <internalNodes>
            0 -1 273 1.3398131355643272e-002</internalNodes>
          <leafValues>
            -1.0514085739850998e-001 7.1885690093040466e-002</leafValues></_>
        <_>
          <internalNodes>
            0 -1 286 3.0318559147417545e-003</internalNodes>
          <leafValues>
            -3.6280807852745056e-001 2.3075442761182785e-002</leafValues></_>
        <_>
          <internalNodes>
            0 -1 220 2.1674714982509613e-002</internalNodes>
          <leafValues>
            -1.1453878134489059e-001 6.4663879573345184e-002</leafValues></_>
        <_>
          <internalNodes>
            0 -1 120 2.7978558093309402e-002</internalNodes>
          <leafValues>
            6.5297052264213562e-002 -1.3444331288337708e-001</leafValues></_>
        <_>
          <internalNodes>
            0 -1 241 3.4254021011292934e-003</internalNodes>
          <leafValues>
            2.2990882396697998e-001 -3.5061128437519073e-002</leafValues></_>
        <_>
          <internalNodes>
            0 -1 193 4.2556606233119965e-002</internalNodes>
          <leafValues>
            4.9361661076545715e-002 -1.5605813264846802e-001</leafValues></_>
        <_>
          <internalNodes>
            0 -1 323 4.1057150810956955e-002</internalNodes>
          <leafValues>
            7.1380369365215302e-002 -1.1449450999498367e-001</leafValues></_>
        <_>
          <internalNodes>
            0 -1 97 2.9316316358745098e-003</internalNodes>
          <leafValues>
            -4.1345626115798950e-001 1.8792036920785904e-002</leafValues></_>
        <_>
          <internalNodes>
            0 -1 75 3.6939173936843872e-002</internalNodes>
          <leafValues>
            -5.2103277295827866e-002 1.3294832408428192e-001</leafValues></_>
        <_>
          <internalNodes>
            0 -1 184 7.1586063131690025e-003</internalNodes>
          <leafValues>
            1.7105408012866974e-001 -4.3417405337095261e-002</leafValues></_>
        <_>
          <internalNodes>
            0 -1 179 2.8056071605533361e-003</internalNodes>
          <leafValues>
            -5.1758378744125366e-001 1.2602893635630608e-002</leafValues></_>
        <_>
          <internalNodes>
            0 -1 301 5.6117754429578781e-002</internalNodes>
          <leafValues>
            -4.6375472098588943e-002 1.4030547440052032e-001</leafValues></_>
        <_>
          <internalNodes>
            0 -1 56 8.0621754750609398e-003</internalNodes>
          <leafValues>
            -1.4766037464141846e-001 4.4702675193548203e-002</leafValues></_>
        <_>
          <internalNodes>
            0 -1 268 1.6969934105873108e-002</internalNodes>
          <leafValues>
            -1.0960111767053604e-001 5.8826461434364319e-002</leafValues></_>
        <_>
          <internalNodes>
            0 -1 269 4.8569753766059875e-002</internalNodes>
          <leafValues>
            5.9872858226299286e-002 -1.4532187581062317e-001</leafValues></_>
        <_>
          <internalNodes>
            0 -1 265 4.4168904423713684e-003</internalNodes>
          <leafValues>
            2.8401106595993042e-001 -3.0183736234903336e-002</leafValues></_>
        <_>
          <internalNodes>
            0 -1 79 8.9574162848293781e-004</internalNodes>
          <leafValues>
            -5.8897960186004639e-001 1.1496361345052719e-002</leafValues></_>
        <_>
          <internalNodes>
            0 -1 242 5.6464849039912224e-003</internalNodes>
          <leafValues>
            1.8256816267967224e-001 -3.6605771631002426e-002</leafValues></_>
        <_>
          <internalNodes>
            0 -1 26 2.5007101893424988e-001</internalNodes>
          <leafValues>
            -9.3648536130785942e-003 6.9628775119781494e-001</leafValues></_>
        <_>
          <internalNodes>
            0 -1 295 5.1263272762298584e-002</internalNodes>
          <leafValues>
            -3.0218208208680153e-002 2.1763348579406738e-001</leafValues></_>
        <_>
          <internalNodes>
            0 -1 105 1.3153994455933571e-002</internalNodes>
          <leafValues>
            -1.0057695955038071e-001 6.6943645477294922e-002</leafValues></_>
        <_>
          <internalNodes>
            0 -1 151 2.3555723950266838e-002</internalNodes>
          <leafValues>
            5.5036146193742752e-002 -1.2032618373632431e-001</leafValues></_>
        <_>
          <internalNodes>
            0 -1 112 1.9372966885566711e-001</internalNodes>
          <leafValues>
            6.5457583405077457e-003 -8.3570039272308350e-001</leafValues></_>
        <_>
          <internalNodes>
            0 -1 69 5.6717425584793091e-002</internalNodes>
          <leafValues>
            1.8338942900300026e-002 -3.0711659789085388e-001</leafValues></_>
        <_>
          <internalNodes>
            0 -1 304 5.1451217383146286e-002</internalNodes>
          <leafValues>
            -4.4824149459600449e-002 1.3797476887702942e-001</leafValues></_>
        <_>
          <internalNodes>
            0 -1 257 2.9438869096338749e-003</internalNodes>
          <leafValues>
            -2.8491026163101196e-001 2.3094417527318001e-002</leafValues></_>
        <_>
          <internalNodes>
            0 -1 159 4.7744460403919220e-002</internalNodes>
          <leafValues>
            4.1057959198951721e-002 -1.5523955225944519e-001</leafValues></_>
        <_>
          <internalNodes>
            0 -1 217 8.1969276070594788e-002</internalNodes>
          <leafValues>
            1.1545676738023758e-002 -5.4948592185974121e-001</leafValues></_>
        <_>
          <internalNodes>
            0 -1 3 4.2145868064835668e-004</internalNodes>
          <leafValues>
            -4.2393952608108521e-001 1.2509346008300781e-002</leafValues></_>
        <_>
          <internalNodes>
            0 -1 189 7.0890435017645359e-004</internalNodes>
          <leafValues>
            -7.2922307252883911e-001 6.8680564872920513e-003</leafValues></_>
        <_>
          <internalNodes>
            0 -1 230 8.8020404800772667e-003</internalNodes>
          <leafValues>
            1.1436426639556885e-001 -5.0836261361837387e-002</leafValues></_>
        <_>
          <internalNodes>
            0 -1 235 1.4427207410335541e-002</internalNodes>
          <leafValues>
